0.07947 -0.10260 -0.68945 1.19238 0.70752 -0.80371 -0.41113 0.39331 0.00702 0.61182 0.35059 0.12427 0.52490 0.39624 0.40112 0.30518 0.00851 -0.39600 -1.57617 -0.94531 1.24902 2.26367 0.55371 -0.01984 -0.05661 -0.58887 0.32373 -0.04825 0.26318 0.36108 3.54297 0.05847 -0.10638 1.72559 1.57422 -0.43945 -0.34961 1.01367 1.66699 -0.03439 -0.02876 2.30859 0.57861 -0.31421 0.78223 0.67432 0.98291 0.04861 -0.00571 -0.14124 -0.31885 -0.75732 -0.50488 -1.04492 -0.87842 0.01395 -0.02708 -0.15332 0.34204 -0.63037 0.17114 -1.39746 -1.95215 -0.81885
-0.10913 -0.02187 0.00400 -0.75635 0.64893 -0.55127 0.45972 -0.93750 -0.06567 1.25781 -0.74268 0.63818 -0.81201 -1.50488 -2.00391 -1.14648 -0.12292 -0.25781 0.42017 -0.30127 -2.04492 -0.60107 -1.26367 0.04889 -0.07770 0.34277 3.02539 -0.03979 -0.47632 -0.65039 3.00391 0.01747 -0.07751 1.92578 2.45508 -1.93848 -0.69385 1.04199 1.33789 0.10681 -0.04944 2.57031 0.47290 0.52148 0.51562 0.52539 1.89648 -0.02361 0.04834 -0.83350 -0.32202 -0.14453 0.73926 -0.12695 -0.04156 0.88818 -0.02574 -0.08246 0.50488 -0.30005 -0.34668 -0.51318 -0.18982 -1.44238
0.08917 -0.09998 -0.55518 -1.28711 -0.46680 -0.57617 -1.90234 0.43823 -0.10547 0.06110 -0.85791 -0.49292 -0.88721 -0.00150 -0.81348 0.19714 0.11731 -1.16992 -0.50244 -0.15430 0.92529 -0.58496 1.22070 -0.05478 -0.06677 0.82129 0.36279 -0.20410 1.07129 0.12817 2.08594 -0.07928 0.11749 0.45825 0.58691 1.06445 1.03711 0.22510 0.28027 -0.01221 -0.08984 0.67969 2.22266 2.12695 1.68262 -1.18359 -1.26172 0.03287 -0.09381 0.68799 0.67383 0.43555 0.31958 0.55273 -0.16577 -0.12720 0.08533 -0.09869 -0.75977 -0.29614 -0.15076 1.02734 0.75049 2.64453
